<?xml version="1.0"?>
<opencv_storage>
<cascade>
  <stageType>BOOST</stageType>
  <featureType>HAAR</featureType>
  <height>35</height>
  <width>35</width>
  <stageParams>
    <boostType>GAB</boostType>
    <minHitRate>9.9500000476837158e-01</minHitRate>
    <maxFalseAlarm>5.0000000000000000e-01</maxFalseAlarm>
    <weightTrimRate>9.4999999999999996e-01</weightTrimRate>
    <maxDepth>1</maxDepth>
    <maxWeakCount>100</maxWeakCount></stageParams>
  <featureParams>
    <maxCatCount>0</maxCatCount>
    <featSize>1</featSize>
    <mode>BASIC</mode></featureParams>
  <stageNum>12</stageNum>
  <stages>
    <!-- stage 0 -->
    <_>
      <maxWeakCount>2</maxWeakCount>
      <stageThreshold>-1.8030025064945221e-01</stageThreshold>
      <weakClassifiers>
        <_>
          <internalNodes>
            0 -1 6 -1.0671973228454590e-01</internalNodes>
          <leafValues>
            8.5425102710723877e-01 -8.7900358438491821e-01</leafValues></_>
        <_>
          <internalNodes>
            0 -1 23 2.8694100677967072e-02</internalNodes>
          <leafValues>
            -9.0347701311111450e-01 6.9870328903198242e-01</leafValues></_></weakClassifiers></_>
    <!-- stage 1 -->
    <_>
      <maxWeakCount>4</maxWeakCount>
      <stageThreshold>-7.9750639200210571e-01</stageThreshold>
      <weakClassifiers>
        <_>
          <internalNodes>
            0 -1 2 -7.0269912481307983e-02</internalNodes>
          <leafValues>
            7.8094196319580078e-01 -7.0357751846313477e-01</leafValues></_>
        <_>
          <internalNodes>
            0 -1 52 -1.3723429292440414e-02</internalNodes>
          <leafValues>
            5.2759337425231934e-01 -7.6302748918533325e-01</leafValues></_>
        <_>
          <internalNodes>
            0 -1 37 -2.1126426290720701e-03</internalNodes>
          <leafValues>
            3.5127946734428406e-01 -9.6131360530853271e-01</leafValues></_>
        <_>
          <internalNodes>
            0 -1 34 5.5199390772031620e-05</internalNodes>
          <leafValues>
            3.1781908869743347e-01 -9.2428809404373169e-01</leafValues></_></weakClassifiers></_>
    <!-- stage 2 -->
    <_>
      <maxWeakCount>4</maxWeakCount>
      <stageThreshold>-7.6429808139801025e-01</stageThreshold>
      <weakClassifiers>
        <_>
          <internalNodes>
            0 -1 4 -1.7284187674522400e-01</internalNodes>
          <leafValues>
            6.9114470481872559e-01 -5.9233450889587402e-01</leafValues></_>
        <_>
          <internalNodes>
            0 -1 14 -1.4188784360885620e-01</internalNodes>
          <leafValues>
            4.9486586451530457e-01 -6.9282329082489014e-01</leafValues></_>
        <_>
          <internalNodes>
            0 -1 50 6.1517472204286605e-05</internalNodes>
          <leafValues>
            2.8375023603439331e-01 -9.3069112300872803e-01</leafValues></_>
        <_>
          <internalNodes>
            0 -1 30 2.3681859602220356e-04</internalNodes>
          <leafValues>
            2.3710943758487701e-01 -9.5870935916900635e-01</leafValues></_></weakClassifiers></_>
    <!-- stage 3 -->
    <_>
      <maxWeakCount>3</maxWeakCount>
      <stageThreshold>-1.4355096220970154e-01</stageThreshold>
      <weakClassifiers>
        <_>
          <internalNodes>
            0 -1 24 7.2799867484718561e-04</internalNodes>
          <leafValues>
            4.7732892632484436e-01 -9.7212541103363037e-01</leafValues></_>
        <_>
          <internalNodes>
            0 -1 33 3.3633969724178314e-04</internalNodes>
          <leafValues>
            2.9697456955909729e-01 -8.8373589515686035e-01</leafValues></_>
        <_>
          <internalNodes>
            0 -1 47 -9.8602147772908211e-04</internalNodes>
          <leafValues>
            2.8643444180488586e-01 -9.1785442829132080e-01</leafValues></_></weakClassifiers></_>
    <!-- stage 4 -->
    <_>
      <maxWeakCount>4</maxWeakCount>
      <stageThreshold>-8.1842339038848877e-01</stageThreshold>
      <weakClassifiers>
        <_>
          <internalNodes>
            0 -1 43 -2.9583554714918137e-02</internalNodes>
          <leafValues>
            5.6125354766845703e-01 -6.5100669860839844e-01</leafValues></_>
        <_>
          <internalNodes>
            0 -1 46 -1.1342284269630909e-03</internalNodes>
          <leafValues>
            -9.3132096529006958e-01 3.5865795612335205e-01</leafValues></_>
        <_>
          <internalNodes>
            0 -1 21 2.2033240646123886e-02</internalNodes>
          <leafValues>
            -6.6702878475189209e-01 3.6247017979621887e-01</leafValues></_>
        <_>
          <internalNodes>
            0 -1 12 -2.2587915882468224e-03</internalNodes>
          <leafValues>
            2.1867282688617706e-01 -9.0744102001190186e-01</leafValues></_></weakClassifiers></_>
    <!-- stage 5 -->
    <_>
      <maxWeakCount>6</maxWeakCount>
      <stageThreshold>-9.0598589181900024e-01</stageThreshold>
      <weakClassifiers>
        <_>
          <internalNodes>
            0 -1 35 1.4122293214313686e-04</internalNodes>
          <leafValues>
            -8.8273614645004272e-01 4.7862532734870911e-01</leafValues></_>
        <_>
          <internalNodes>
            0 -1 64 4.0069673210382462e-02</internalNodes>
          <leafValues>
            -6.3132041692733765e-01 4.1311383247375488e-01</leafValues></_>
        <_>
          <internalNodes>
            0 -1 17 -2.2185148554854095e-04</internalNodes>
          <leafValues>
            3.2733935117721558e-01 -7.6498442888259888e-01</leafValues></_>
        <_>
          <internalNodes>
            0 -1 16 1.0921948123723269e-03</internalNodes>
          <leafValues>
            2.1481679379940033e-01 -8.9126116037368774e-01</leafValues></_>
        <_>
          <internalNodes>
            0 -1 28 -7.0571325719356537e-02</internalNodes>
          <leafValues>
            5.9728676080703735e-01 -4.1836529970169067e-01</leafValues></_>
        <_>
          <internalNodes>
            0 -1 59 -9.8995362350251526e-05</internalNodes>
          <leafValues>
            -9.3347483873367310e-01 2.2899632155895233e-01</leafValues></_></weakClassifiers></_>
    <!-- stage 6 -->
    <_>
      <maxWeakCount>5</maxWeakCount>
      <stageThreshold>-3.2139751315116882e-01</stageThreshold>
      <weakClassifiers>
        <_>
          <internalNodes>
            0 -1 58 9.0514624025672674e-04</internalNodes>
          <leafValues>
            -9.5366793870925903e-01 4.4077357649803162e-01</leafValues></_>
        <_>
          <internalNodes>
            0 -1 1 -7.8286677598953247e-02</internalNodes>
          <leafValues>
            4.8913484811782837e-01 -5.5791652202606201e-01</leafValues></_>
        <_>
          <internalNodes>
            0 -1 39 -1.1767726391553879e-03</internalNodes>
          <leafValues>
            2.9612338542938232e-01 -8.4536087512969971e-01</leafValues></_>
        <_>
          <internalNodes>
            0 -1 54 -2.8563104569911957e-03</internalNodes>
          <leafValues>
            3.5447025299072266e-01 -5.8633708953857422e-01</leafValues></_>
        <_>
          <internalNodes>
            0 -1 65 8.8879423856269568e-05</internalNodes>
          <leafValues>
            2.8663605451583862e-01 -8.5324662923812866e-01</leafValues></_></weakClassifiers></_>
    <!-- stage 7 -->
    <_>
      <maxWeakCount>5</maxWeakCount>
      <stageThreshold>-5.9193521738052368e-01</stageThreshold>
      <weakClassifiers>
        <_>
          <internalNodes>
            0 -1 40 1.9522302318364382e-04</internalNodes>
          <leafValues>
            4.1987180709838867e-01 -8.8888889551162720e-01</leafValues></_>
        <_>
          <internalNodes>
            0 -1 10 1.5904858708381653e-02</internalNodes>
          <leafValues>
            -6.1412876844406128e-01 3.9583784341812134e-01</leafValues></_>
        <_>
          <internalNodes>
            0 -1 38 -3.6466946767177433e-05</internalNodes>
          <leafValues>
            3.1050282716751099e-01 -6.9725912809371948e-01</leafValues></_>
        <_>
          <internalNodes>
            0 -1 26 1.7120949632953852e-04</internalNodes>
          <leafValues>
            2.2830426692962646e-01 -8.5239189863204956e-01</leafValues></_>
        <_>
          <internalNodes>
            0 -1 22 2.1279079373925924e-04</internalNodes>
          <leafValues>
            1.4200612902641296e-01 -8.5973739624023438e-01</leafValues></_></weakClassifiers></_>
    <!-- stage 8 -->
    <_>
      <maxWeakCount>7</maxWeakCount>
      <stageThreshold>-6.8630075454711914e-01</stageThreshold>
      <weakClassifiers>
        <_>
          <internalNodes>
            0 -1 32 -1.5829395852051675e-04</internalNodes>
          <leafValues>
            4.3471074104309082e-01 -7.7931034564971924e-01</leafValues></_>
        <_>
          <internalNodes>
            0 -1 56 -4.6116868034005165e-03</internalNodes>
          <leafValues>
            6.3752591609954834e-01 -3.4157264232635498e-01</leafValues></_>
        <_>
          <internalNodes>
            0 -1 36 8.5948149717296474e-06</internalNodes>
          <leafValues>
            2.5295564532279968e-01 -8.2930415868759155e-01</leafValues></_>
        <_>
          <internalNodes>
            0 -1 48 1.3650147593580186e-04</internalNodes>
          <leafValues>
            1.9318206608295441e-01 -8.9303392171859741e-01</leafValues></_>
        <_>
          <internalNodes>
            0 -1 61 -3.0512036755681038e-03</internalNodes>
          <leafValues>
            1.6811089217662811e-01 -8.5787075757980347e-01</leafValues></_>
        <_>
          <internalNodes>
            0 -1 9 -1.1739160865545273e-02</internalNodes>
          <leafValues>
            6.1034983396530151e-01 -3.2761931419372559e-01</leafValues></_>
        <_>
          <internalNodes>
            0 -1 53 1.0911296703852713e-04</internalNodes>
          <leafValues>
            2.0296543836593628e-01 -8.3114564418792725e-01</leafValues></_></weakClassifiers></_>
    <!-- stage 9 -->
    <_>
      <maxWeakCount>7</maxWeakCount>
      <stageThreshold>-9.9749892950057983e-01</stageThreshold>
      <weakClassifiers>
        <_>
          <internalNodes>
            0 -1 7 -1.0089331772178411e-03</internalNodes>
          <leafValues>
            4.1883116960525513e-01 -8.0597013235092163e-01</leafValues></_>
        <_>
          <internalNodes>
            0 -1 13 1.2023925781250000e-02</internalNodes>
          <leafValues>
            -2.8865402936935425e-01 6.6657894849777222e-01</leafValues></_>
        <_>
          <internalNodes>
            0 -1 29 2.8725550509989262e-04</internalNodes>
          <leafValues>
            2.1257086098194122e-01 -8.7664711475372314e-01</leafValues></_>
        <_>
          <internalNodes>
            0 -1 57 2.0094506442546844e-02</internalNodes>
          <leafValues>
            -8.5175544023513794e-01 1.5933293104171753e-01</leafValues></_>
        <_>
          <internalNodes>
            0 -1 41 1.1420035298215225e-04</internalNodes>
          <leafValues>
            1.7257373034954071e-01 -7.9431504011154175e-01</leafValues></_>
        <_>
          <internalNodes>
            0 -1 62 4.7831712436163798e-05</internalNodes>
          <leafValues>
            1.4011819660663605e-01 -7.9762154817581177e-01</leafValues></_>
        <_>
          <internalNodes>
            0 -1 15 -1.6547183040529490e-03</internalNodes>
          <leafValues>
            1.3655631244182587e-01 -9.4283026456832886e-01</leafValues></_></weakClassifiers></_>
    <!-- stage 10 -->
    <_>
      <maxWeakCount>8</maxWeakCount>
      <stageThreshold>-8.0389773845672607e-01</stageThreshold>
      <weakClassifiers>
        <_>
          <internalNodes>
            0 -1 25 -3.8501498056575656e-04</internalNodes>
          <leafValues>
            -6.7320263385772705e-01 4.2378559708595276e-01</leafValues></_>
        <_>
          <internalNodes>
            0 -1 20 -1.7019806546159089e-04</internalNodes>
          <leafValues>
            2.0785571634769440e-01 -8.8045489788055420e-01</leafValues></_>
        <_>
          <internalNodes>
            0 -1 42 -1.8207889050245285e-02</internalNodes>
          <leafValues>
            5.6190514564514160e-01 -3.5963755846023560e-01</leafValues></_>
        <_>
          <internalNodes>
            0 -1 11 1.1749719083309174e-01</internalNodes>
          <leafValues>
            -1.9179970026016235e-01 8.0395853519439697e-01</leafValues></_>
        <_>
          <internalNodes>
            0 -1 60 1.2007845798507333e-03</internalNodes>
          <leafValues>
            3.1177684664726257e-01 -5.8864581584930420e-01</leafValues></_>
        <_>
          <internalNodes>
            0 -1 18 -2.0862545352429152e-04</internalNodes>
          <leafValues>
            1.9040265679359436e-01 -8.7133079767227173e-01</leafValues></_>
        <_>
          <internalNodes>
            0 -1 5 -1.4662124216556549e-02</internalNodes>
          <leafValues>
            3.9232626557350159e-01 -4.4502007961273193e-01</leafValues></_>
        <_>
          <internalNodes>
            0 -1 63 1.4147011097520590e-04</internalNodes>
          <leafValues>
            2.4056972563266754e-01 -8.7818491458892822e-01</leafValues></_></weakClassifiers></_>
    <!-- stage 11 -->
    <_>
      <maxWeakCount>11</maxWeakCount>
      <stageThreshold>-1.3726489543914795e+00</stageThreshold>
      <weakClassifiers>
        <_>
          <internalNodes>
            0 -1 44 -9.8592555150389671e-03</internalNodes>
          <leafValues>
            5.1334702968597412e-01 -3.8022813200950623e-01</leafValues></_>
        <_>
          <internalNodes>
            0 -1 19 -5.7310203555971384e-04</internalNodes>
          <leafValues>
            -4.7546032071113586e-01 3.9700484275817871e-01</leafValues></_>
        <_>
          <internalNodes>
            0 -1 8 -1.4929765835404396e-02</internalNodes>
          <leafValues>
            4.6738046407699585e-01 -3.3605134487152100e-01</leafValues></_>
        <_>
          <internalNodes>
            0 -1 27 1.0741498408606276e-04</internalNodes>
          <leafValues>
            2.3389562964439392e-01 -6.3220846652984619e-01</leafValues></_>
        <_>
          <internalNodes>
            0 -1 3 -2.9496485367417336e-03</internalNodes>
          <leafValues>
            -5.8197885751724243e-01 2.6392871141433716e-01</leafValues></_>
        <_>
          <internalNodes>
            0 -1 31 2.9552564956247807e-04</internalNodes>
          <leafValues>
            1.0871033370494843e-01 -8.9113140106201172e-01</leafValues></_>
        <_>
          <internalNodes>
            0 -1 51 1.8531389287090860e-05</internalNodes>
          <leafValues>
            -8.9903128147125244e-01 1.1977127194404602e-01</leafValues></_>
        <_>
          <internalNodes>
            0 -1 0 -8.6753472685813904e-02</internalNodes>
          <leafValues>
            8.5314047336578369e-01 -2.1013937890529633e-01</leafValues></_>
        <_>
          <internalNodes>
            0 -1 55 -2.1934481337666512e-02</internalNodes>
          <leafValues>
            6.0198765993118286e-01 -2.4499720335006714e-01</leafValues></_>
        <_>
          <internalNodes>
            0 -1 49 1.0185688734054565e-03</internalNodes>
          <leafValues>
            2.4478833377361298e-01 -7.5509488582611084e-01</leafValues></_>
        <_>
          <internalNodes>
            0 -1 45 -2.2098608314990997e-03</internalNodes>
          <leafValues>
            -8.8125419616699219e-01 1.4267972111701965e-01</leafValues></_></weakClassifiers></_></stages>
  <features>
    <_>
      <rects>
        <_>
          0 6 27 6 -1.</_>
        <_>
          9 6 9 6 3.</_></rects>
      <tilted>0</tilted></_>
    <_>
      <rects>
        <_>
          0 8 14 24 -1.</_>
        <_>
          7 8 7 24 2.</_></rects>
      <tilted>0</tilted></_>
    <_>
      <rects>
        <_>
          0 10 18 16 -1.</_>
        <_>
          9 10 9 16 2.</_></rects>
      <tilted>0</tilted></_>
    <_>
      <rects>
        <_>
          1 0 14 1 -1.</_>
        <_>
          8 0 7 1 2.</_></rects>
      <tilted>0</tilted></_>
    <_>
      <rects>
        <_>
          1 12 33 15 -1.</_>
        <_>
          12 12 11 15 3.</_></rects>
      <tilted>0</tilted></_>
    <_>
      <rects>
        <_>
          2 11 18 7 -1.</_>
        <_>
          8 11 6 7 3.</_></rects>
      <tilted>0</tilted></_>
    <_>
      <rects>
        <_>
          2 11 33 15 -1.</_>
        <_>
          13 11 11 15 3.</_></rects>
      <tilted>0</tilted></_>
    <_>
      <rects>
        <_>
          5 16 18 3 -1.</_>
        <_>
          11 16 6 3 3.</_></rects>
      <tilted>0</tilted></_>
    <_>
      <rects>
        <_>
          6 16 8 5 -1.</_>
        <_>
          10 16 4 5 2.</_></rects>
      <tilted>0</tilted></_>
    <_>
      <rects>
        <_>
          6 16 12 5 -1.</_>
        <_>
          10 16 4 5 3.</_></rects>
      <tilted>0</tilted></_>
    <_>
      <rects>
        <_>
          7 27 19 8 -1.</_>
        <_>
          7 31 19 4 2.</_></rects>
      <tilted>0</tilted></_>
    <_>
      <rects>
        <_>
          9 8 22 22 -1.</_>
        <_>
          9 8 11 11 2.</_>
        <_>
          20 19 11 11 2.</_></rects>
      <tilted>0</tilted></_>
    <_>
      <rects>
        <_>
          9 13 15 6 -1.</_>
        <_>
          14 13 5 6 3.</_></rects>
      <tilted>0</tilted></_>
    <_>
      <rects>
        <_>
          9 31 17 4 -1.</_>
        <_>
          9 33 17 2 2.</_></rects>
      <tilted>0</tilted></_>
    <_>
      <rects>
        <_>
          10 0 16 33 -1.</_>
        <_>
          10 11 16 11 3.</_></rects>
      <tilted>0</tilted></_>
    <_>
      <rects>
        <_>
          10 13 15 5 -1.</_>
        <_>
          15 13 5 5 3.</_></rects>
      <tilted>0</tilted></_>
    <_>
      <rects>
        <_>
          10 19 9 7 -1.</_>
        <_>
          13 19 3 7 3.</_></rects>
      <tilted>0</tilted></_>
    <_>
      <rects>
        <_>
          10 19 14 1 -1.</_>
        <_>
          17 19 7 1 2.</_></rects>
      <tilted>0</tilted></_>
    <_>
      <rects>
        <_>
          11 17 4 7 -1.</_>
        <_>
          13 17 2 7 2.</_></rects>
      <tilted>0</tilted></_>
    <_>
      <rects>
        <_>
          11 21 6 1 -1.</_>
        <_>
          14 21 3 1 2.</_></rects>
      <tilted>0</tilted></_>
    <_>
      <rects>
        <_>
          11 21 10 1 -1.</_>
        <_>
          16 21 5 1 2.</_></rects>
      <tilted>0</tilted></_>
    <_>
      <rects>
        <_>
          11 23 13 12 -1.</_>
        <_>
          11 29 13 6 2.</_></rects>
      <tilted>0</tilted></_>
    <_>
      <rects>
        <_>
          12 12 10 9 -1.</_>
        <_>
          12 15 10 3 3.</_></rects>
      <tilted>0</tilted></_>
    <_>
      <rects>
        <_>
          12 13 15 22 -1.</_>
        <_>
          12 24 15 11 2.</_></rects>
      <tilted>0</tilted></_>
    <_>
      <rects>
        <_>
          12 16 9 6 -1.</_>
        <_>
          12 18 9 2 3.</_></rects>
      <tilted>0</tilted></_>
    <_>
      <rects>
        <_>
          12 18 4 1 -1.</_>
        <_>
          14 18 2 1 2.</_></rects>
      <tilted>0</tilted></_>
    <_>
      <rects>
        <_>
          12 19 12 3 -1.</_>
        <_>
          12 20 12 1 3.</_></rects>
      <tilted>0</tilted></_>
    <_>
      <rects>
        <_>
          12 23 9 5 -1.</_>
        <_>
          15 23 3 5 3.</_></rects>
      <tilted>0</tilted></_>
    <_>
      <rects>
        <_>
          13 0 11 14 -1.</_>
        <_>
          13 7 11 7 2.</_></rects>
      <tilted>0</tilted></_>
    <_>
      <rects>
        <_>
          13 10 11 9 -1.</_>
        <_>
          13 13 11 3 3.</_></rects>
      <tilted>0</tilted></_>
    <_>
      <rects>
        <_>
          13 15 10 3 -1.</_>
        <_>
          13 16 10 1 3.</_></rects>
      <tilted>0</tilted></_>
    <_>
      <rects>
        <_>
          13 16 12 3 -1.</_>
        <_>
          13 17 12 1 3.</_></rects>
      <tilted>0</tilted></_>
    <_>
      <rects>
        <_>
          13 18 4 8 -1.</_>
        <_>
          15 18 2 8 2.</_></rects>
      <tilted>0</tilted></_>
    <_>
      <rects>
        <_>
          13 19 4 6 -1.</_>
        <_>
          13 21 4 2 3.</_></rects>
      <tilted>0</tilted></_>
    <_>
      <rects>
        <_>
          13 22 6 1 -1.</_>
        <_>
          16 22 3 1 2.</_></rects>
      <tilted>0</tilted></_>
    <_>
      <rects>
        <_>
          13 23 7 4 -1.</_>
        <_>
          13 25 7 2 2.</_></rects>
      <tilted>0</tilted></_>
    <_>
      <rects>
        <_>
          14 12 9 9 -1.</_>
        <_>
          14 15 9 3 3.</_></rects>
      <tilted>0</tilted></_>
    <_>
      <rects>
        <_>
          14 15 18 8 -1.</_>
        <_>
          20 15 6 8 3.</_></rects>
      <tilted>0</tilted></_>
    <_>
      <rects>
        <_>
          14 18 2 4 -1.</_>
        <_>
          15 18 1 4 2.</_></rects>
      <tilted>0</tilted></_>
    <_>
      <rects>
        <_>
          14 20 12 8 -1.</_>
        <_>
          18 20 4 8 3.</_></rects>
      <tilted>0</tilted></_>
    <_>
      <rects>
        <_>
          14 20 8 3 -1.</_>
        <_>
          14 21 8 1 3.</_></rects>
      <tilted>0</tilted></_>
    <_>
      <rects>
        <_>
          14 21 3 3 -1.</_>
        <_>
          14 22 3 1 3.</_></rects>
      <tilted>0</tilted></_>
    <_>
      <rects>
        <_>
          15 0 5 18 -1.</_>
        <_>
          15 6 5 6 3.</_></rects>
      <tilted>0</tilted></_>
    <_>
      <rects>
        <_>
          15 0 9 16 -1.</_>
        <_>
          15 8 9 8 2.</_></rects>
      <tilted>0</tilted></_>
    <_>
      <rects>
        <_>
          15 1 4 21 -1.</_>
        <_>
          15 8 4 7 3.</_></rects>
      <tilted>0</tilted></_>
    <_>
      <rects>
        <_>
          15 16 6 6 -1.</_>
        <_>
          18 16 3 6 2.</_></rects>
      <tilted>0</tilted></_>
    <_>
      <rects>
        <_>
          15 16 6 6 -1.</_>
        <_>
          15 18 6 2 3.</_></rects>
      <tilted>0</tilted></_>
    <_>
      <rects>
        <_>
          16 5 3 18 -1.</_>
        <_>
          16 11 3 6 3.</_></rects>
      <tilted>0</tilted></_>
    <_>
      <rects>
        <_>
          16 17 3 7 -1.</_>
        <_>
          17 17 1 7 3.</_></rects>
      <tilted>0</tilted></_>
    <_>
      <rects>
        <_>
          16 17 6 6 -1.</_>
        <_>
          19 17 3 6 2.</_></rects>
      <tilted>0</tilted></_>
    <_>
      <rects>
        <_>
          16 19 1 3 -1.</_>
        <_>
          16 20 1 1 3.</_></rects>
      <tilted>0</tilted></_>
    <_>
      <rects>
        <_>
          16 23 9 2 -1.</_>
        <_>
          16 24 9 1 2.</_></rects>
      <tilted>0</tilted></_>
    <_>
      <rects>
        <_>
          17 0 5 16 -1.</_>
        <_>
          17 8 5 8 2.</_></rects>
      <tilted>0</tilted></_>
    <_>
      <rects>
        <_>
          17 17 2 6 -1.</_>
        <_>
          18 17 1 6 2.</_></rects>
      <tilted>0</tilted></_>
    <_>
      <rects>
        <_>
          18 1 1 21 -1.</_>
        <_>
          18 8 1 7 3.</_></rects>
      <tilted>0</tilted></_>
    <_>
      <rects>
        <_>
          19 8 15 11 -1.</_>
        <_>
          24 8 5 11 3.</_></rects>
      <tilted>0</tilted></_>
    <_>
      <rects>
        <_>
          19 18 12 2 -1.</_>
        <_>
          23 18 4 2 3.</_></rects>
      <tilted>0</tilted></_>
    <_>
      <rects>
        <_>
          20 11 14 16 -1.</_>
        <_>
          27 11 7 16 2.</_></rects>
      <tilted>0</tilted></_>
    <_>
      <rects>
        <_>
          20 14 1 18 -1.</_>
        <_>
          20 23 1 9 2.</_></rects>
      <tilted>0</tilted></_>
    <_>
      <rects>
        <_>
          20 19 2 4 -1.</_>
        <_>
          20 19 1 2 2.</_>
        <_>
          21 21 1 2 2.</_></rects>
      <tilted>0</tilted></_>
    <_>
      <rects>
        <_>
          20 20 4 4 -1.</_>
        <_>
          20 22 4 2 2.</_></rects>
      <tilted>0</tilted></_>
    <_>
      <rects>
        <_>
          21 0 2 24 -1.</_>
        <_>
          21 12 2 12 2.</_></rects>
      <tilted>0</tilted></_>
    <_>
      <rects>
        <_>
          21 18 2 1 -1.</_>
        <_>
          22 18 1 1 2.</_></rects>
      <tilted>0</tilted></_>
    <_>
      <rects>
        <_>
          22 16 3 4 -1.</_>
        <_>
          23 16 1 4 3.</_></rects>
      <tilted>0</tilted></_>
    <_>
      <rects>
        <_>
          23 11 12 18 -1.</_>
        <_>
          29 11 6 18 2.</_></rects>
      <tilted>0</tilted></_>
    <_>
      <rects>
        <_>
          23 17 3 4 -1.</_>
        <_>
          24 17 1 4 3.</_></rects>
      <tilted>0</tilted></_></features></cascade>
</opencv_storage>
